<?xml version="1.0"?>
<opencv_storage>
<cascade>
  <stageType>BOOST</stageType>
  <featureType>LBP</featureType>
  <height>60</height>
  <width>45</width>
  <stageParams>
    <boostType>GAB</boostType>
    <minHitRate>9.9500000476837158e-01</minHitRate>
    <maxFalseAlarm>5.0000000000000000e-01</maxFalseAlarm>
    <weightTrimRate>9.4999999999999996e-01</weightTrimRate>
    <maxDepth>1</maxDepth>
    <maxWeakCount>100</maxWeakCount></stageParams>
  <featureParams>
    <maxCatCount>256</maxCatCount>
    <featSize>1</featSize></featureParams>
  <stageNum>10</stageNum>
  <stages>
    <!-- stage 0 -->
    <_>
      <maxWeakCount>3</maxWeakCount>
      <stageThreshold>-1.1666177511215210e+00</stageThreshold>
      <weakClassifiers>
        <_>
          <internalNodes>
            0 -1 27 -137 -8321 -4456457 -8225 -4458635 -1057569 -1048715
            -5121</internalNodes>
          <leafValues>
            -9.5110726356506348e-01 6.9550174474716187e-01</leafValues></_>
        <_>
          <internalNodes>
            0 -1 5 -33554947 -3843 -72877057 -10241 -174947168 -37501707
            -1009789607 -1</internalNodes>
          <leafValues>
            -8.6264020204544067e-01 6.8735003471374512e-01</leafValues></_>
        <_>
          <internalNodes>
            0 -1 10 -2061 -35845 -543297039 2013230291 -5245953 -2360401
            2012213727 1979675135</internalNodes>
          <leafValues>
            -8.6337673664093018e-01 6.4712983369827271e-01</leafValues></_></weakClassifiers></_>
    <!-- stage 1 -->
    <_>
      <maxWeakCount>3</maxWeakCount>
      <stageThreshold>-1.1528286933898926e+00</stageThreshold>
      <weakClassifiers>
        <_>
          <internalNodes>
            0 -1 23 -2097185 -614466209 -209716229 -136317473 -754462453
            -916984033 -217849077 -4195413</internalNodes>
          <leafValues>
            -8.5408192873001099e-01 6.8891340494155884e-01</leafValues></_>
        <_>
          <internalNodes>
            0 -1 26 -137 -2097153 -40135809 -1025 2013131637 -71311589
            -70254732 -4259841</internalNodes>
          <leafValues>
            -8.9332419633865356e-01 5.4248392581939697e-01</leafValues></_>
        <_>
          <internalNodes>
            0 -1 9 -6029534 -204736685 -691834109 -102288525 -16519390
            -106179258 -737937565 -524317</internalNodes>
          <leafValues>
            -8.2498121261596680e-01 5.9457737207412720e-01</leafValues></_></weakClassifiers></_>
    <!-- stage 2 -->
    <_>
      <maxWeakCount>3</maxWeakCount>
      <stageThreshold>-9.6577501296997070e-01</stageThreshold>
      <weakClassifiers>
        <_>
          <internalNodes>
            0 -1 18 -1 -33825 -212109409 -2105409 -49545333 -7340577
            -83182837 -113</internalNodes>
          <leafValues>
            -7.9152584075927734e-01 6.9268000125885010e-01</leafValues></_>
        <_>
          <internalNodes>
            0 -1 33 -2177 -9217 -203424769 -97 -3182729 -67379521
            -4194441 -33</internalNodes>
          <leafValues>
            -7.9054808616638184e-01 6.2390071153640747e-01</leafValues></_>
        <_>
          <internalNodes>
            0 -1 19 -4354 -18874658 -1312801 -33 -4002310 -4459783
            -205259797 -71311365</internalNodes>
          <leafValues>
            -7.9814988374710083e-01 6.4408791065216064e-01</leafValues></_></weakClassifiers></_>
    <!-- stage 3 -->
    <_>
      <maxWeakCount>3</maxWeakCount>
      <stageThreshold>-1.1901822090148926e+00</stageThreshold>
      <weakClassifiers>
        <_>
          <internalNodes>
            0 -1 2 -973082705 -810554462 -941625057 -1213 -442512401
            -821306710 -773064837 -137</internalNodes>
          <leafValues>
            -8.3561640977859497e-01 5.6630265712738037e-01</leafValues></_>
        <_>
          <internalNodes>
            0 -1 30 -268439761 -268436001 -369098753 -8193 -1161
            -134480005 -134742153 -1</internalNodes>
          <leafValues>
            -8.2413780689239502e-01 5.9247112274169922e-01</leafValues></_>
        <_>
          <internalNodes>
            0 -1 14 -37257 -641 -17826850 -76809 -74485915 -33937
            -8422563 -32908</internalNodes>
          <leafValues>
            -9.0403074026107788e-01 4.6957197785377502e-01</leafValues></_></weakClassifiers></_>
    <!-- stage 4 -->
    <_>
      <maxWeakCount>4</maxWeakCount>
      <stageThreshold>-1.9263948202133179e+00</stageThreshold>
      <weakClassifiers>
        <_>
          <internalNodes>
            0 -1 1 -4113 -890246673 -35662033 -527393 -67110017
            1087369359 -237241473 -1</internalNodes>
          <leafValues>
            -7.7385723590850830e-01 5.6566232442855835e-01</leafValues></_>
        <_>
          <internalNodes>
            0 -1 29 -1342197977 -1342185537 -34343945 -281553993
            -604110977 -2381377 -6299657 -1</internalNodes>
          <leafValues>
            -8.2024228572845459e-01 4.8968315124511719e-01</leafValues></_>
        <_>
          <internalNodes>
            0 -1 16 -1141194960 -2634757 -585631747 -671275 -1615332420
            -88080961 -3867681 -5121</internalNodes>
          <leafValues>
            -8.2318532466888428e-01 4.8117271065711975e-01</leafValues></_>
        <_>
          <internalNodes>
            0 -1 7 -657961 -929897 -2630145 -11809 1967501788 2136026191
            1401290719 2139159551</internalNodes>
          <leafValues>
            -8.1903541088104248e-01 4.9014467000961304e-01</leafValues></_></weakClassifiers></_>
    <!-- stage 5 -->
    <_>
      <maxWeakCount>3</maxWeakCount>
      <stageThreshold>-1.0298295021057129e+00</stageThreshold>
      <weakClassifiers>
        <_>
          <internalNodes>
            0 -1 31 -262283 -2137257 -377018339 -3171817 -6555979
            -70564475 -67372053 -1049601</internalNodes>
          <leafValues>
            -7.5591599941253662e-01 5.4226565361022949e-01</leafValues></_>
        <_>
          <internalNodes>
            0 -1 22 -129 -2106369 -4456577 -2117153 -1078199435 -5665
            -67372163 -131073</internalNodes>
          <leafValues>
            -7.5259345769882202e-01 6.1576652526855469e-01</leafValues></_>
        <_>
          <internalNodes>
            0 -1 6 -540086354 -879823382 -33555153 -2099341 -741422082
            -909184566 -547881089 -8390793</internalNodes>
          <leafValues>
            -8.1950169801712036e-01 5.3563743829727173e-01</leafValues></_></weakClassifiers></_>
    <!-- stage 6 -->
    <_>
      <maxWeakCount>4</maxWeakCount>
      <stageThreshold>-7.9030883312225342e-01</stageThreshold>
      <weakClassifiers>
        <_>
          <internalNodes>
            0 -1 25 -168296481 -151923506 -237376321 -677129057
            -586690673 -297287193 -216538357 -213910741</internalNodes>
          <leafValues>
            -8.0660104751586914e-01 4.3304008245468140e-01</leafValues></_>
        <_>
          <internalNodes>
            0 -1 28 -67109001 -137366689 -2128611337 -538969089
            -75533451 -105256753 -69240971 -67372033</internalNodes>
          <leafValues>
            -8.1550300121307373e-01 4.4471526145935059e-01</leafValues></_>
        <_>
          <internalNodes>
            0 -1 13 -134219785 -573735457 1739814911 1431130575
            -276565102 -963922241 862151643 1426978207</internalNodes>
          <leafValues>
            -8.6225926876068115e-01 4.5503160357475281e-01</leafValues></_>
        <_>
          <internalNodes>
            0 -1 4 -812978232 -268437085 -774646275 -11915 1325661326
            -73809662 1762393295 -134220809</internalNodes>
          <leafValues>
            -8.0580490827560425e-01 4.4875904917716980e-01</leafValues></_></weakClassifiers></_>
    <!-- stage 7 -->
    <_>
      <maxWeakCount>4</maxWeakCount>
      <stageThreshold>-1.9936162233352661e+00</stageThreshold>
      <weakClassifiers>
        <_>
          <internalNodes>
            0 -1 8 -2359297 -134218753 -538985986 -251725826 -1048577
            -2359297 -262172 -1036</internalNodes>
          <leafValues>
            -8.3440661430358887e-01 3.6668154597282410e-01</leafValues></_>
        <_>
          <internalNodes>
            0 -1 12 -48369391 -6696835 -713566729 -2242660 -40846820
            -5187524 -67371030 -4285954</internalNodes>
          <leafValues>
            -8.0878901481628418e-01 4.6417933702468872e-01</leafValues></_>
        <_>
          <internalNodes>
            0 -1 20 -67567618 863041503 -539107586 -135900944 -205849617
            1987115746 -68461601 -134783277</internalNodes>
          <leafValues>
            -8.1994110345840454e-01 4.3396219611167908e-01</leafValues></_>
        <_>
          <internalNodes>
            0 -1 32 -35651721 -41984737 -543162369 -11281161 -73419913
            -325051 -1074087051 -9175681</internalNodes>
          <leafValues>
            -8.0842489004135132e-01 4.6952053904533386e-01</leafValues></_></weakClassifiers></_>
    <!-- stage 8 -->
    <_>
      <maxWeakCount>4</maxWeakCount>
      <stageThreshold>-1.8368262052536011e+00</stageThreshold>
      <weakClassifiers>
        <_>
          <internalNodes>
            0 -1 3 -33 -157818981 -665391121 -254608422 -540808193
            -108811313 -205587457 -67108865</internalNodes>
          <leafValues>
            -6.9783812761306763e-01 5.7555848360061646e-01</leafValues></_>
        <_>
          <internalNodes>
            0 -1 17 -1080336592 -715425 -304129539 -680193 -1080319052
            -2162182 -1424236609 -2151813</internalNodes>
          <leafValues>
            -8.7292283773422241e-01 3.9782434701919556e-01</leafValues></_>
        <_>
          <internalNodes>
            0 -1 24 -11012128 1357893824 -705169437 -168308232 -49285233
            -792473421 -216929365 -76290637</internalNodes>
          <leafValues>
            -7.6268291473388672e-01 4.9748045206069946e-01</leafValues></_>
        <_>
          <internalNodes>
            0 -1 15 -316033 -2622497 -494025729 -2107425 -457547913
            -5253909 -85983371 -1035</internalNodes>
          <leafValues>
            -7.7412956953048706e-01 4.7854596376419067e-01</leafValues></_></weakClassifiers></_>
    <!-- stage 9 -->
    <_>
      <maxWeakCount>3</maxWeakCount>
      <stageThreshold>-1.0456410646438599e+00</stageThreshold>
      <weakClassifiers>
        <_>
          <internalNodes>
            0 -1 0 -102173185 -343732015 -922702545 -1954217727
            -139400209 -1108238279 -163513465 -2623073</internalNodes>
          <leafValues>
            -7.5860273838043213e-01 6.0697114467620850e-01</leafValues></_>
        <_>
          <internalNodes>
            0 -1 21 -2015396033 -1074785825 -752783015 -458657 -7722637
            -24412086 -1449430251 -1234139</internalNodes>
          <leafValues>
            -7.9116886854171753e-01 5.0725358724594116e-01</leafValues></_>
        <_>
          <internalNodes>
            0 -1 11 -355471601 -1534950014 1351127815 -69221392
            -888608393 -1987985181 551206759 -838866073</internalNodes>
          <leafValues>
            -7.9429191350936890e-01 5.0726312398910522e-01</leafValues></_></weakClassifiers></_></stages>
  <features>
    <_>
      <rect>
        5 21 7 9</rect></_>
    <_>
      <rect>
        7 23 2 3</rect></_>
    <_>
      <rect>
        8 19 2 4</rect></_>
    <_>
      <rect>
        8 32 1 2</rect></_>
    <_>
      <rect>
        9 13 3 5</rect></_>
    <_>
      <rect>
        9 18 9 11</rect></_>
    <_>
      <rect>
        9 20 2 4</rect></_>
    <_>
      <rect>
        9 26 6 5</rect></_>
    <_>
      <rect>
        9 36 1 1</rect></_>
    <_>
      <rect>
        10 5 3 11</rect></_>
    <_>
      <rect>
        10 14 5 8</rect></_>
    <_>
      <rect>
        10 23 1 2</rect></_>
    <_>
      <rect>
        10 28 9 4</rect></_>
    <_>
      <rect>
        11 10 5 11</rect></_>
    <_>
      <rect>
        12 30 1 2</rect></_>
    <_>
      <rect>
        12 34 1 1</rect></_>
    <_>
      <rect>
        13 11 4 4</rect></_>
    <_>
      <rect>
        14 10 4 4</rect></_>
    <_>
      <rect>
        15 13 6 9</rect></_>
    <_>
      <rect>
        15 19 5 10</rect></_>
    <_>
      <rect>
        15 29 4 5</rect></_>
    <_>
      <rect>
        16 16 1 1</rect></_>
    <_>
      <rect>
        17 14 2 2</rect></_>
    <_>
      <rect>
        18 10 4 10</rect></_>
    <_>
      <rect>
        18 16 4 9</rect></_>
    <_>
      <rect>
        20 13 3 8</rect></_>
    <_>
      <rect>
        20 14 2 2</rect></_>
    <_>
      <rect>
        22 13 2 2</rect></_>
    <_>
      <rect>
        22 14 1 2</rect></_>
    <_>
      <rect>
        22 29 1 1</rect></_>
    <_>
      <rect>
        23 30 1 1</rect></_>
    <_>
      <rect>
        25 8 2 5</rect></_>
    <_>
      <rect>
        25 12 2 2</rect></_>
    <_>
      <rect>
        25 14 1 1</rect></_></features></cascade>
</opencv_storage>
